{
    "bias": [
        [],
        [
            2.8988510717118414,
            0.4326822125297051,
            -2.4652939552882027,
            -1.4618326906108612,
            0.7360175446213694
        ],
        [
            -1.0696401709602843,
            -0.7880420476956475,
            -0.3640958076125765
        ],
        []
    ],
    "model_dict": {
        "cost": "mse",
        "hidden": [
            [
                5,
                "logistic"
            ]
        ],
        "input": 4,
        "output": [
            3,
            "logistic"
        ]
    },
    "weights": [
        [],
        [
            [
                -2.7140123820929603,
                -1.7565579030080944,
                2.640892711264503,
                2.8986057589809286,
                -2.194577485470331
            ],
            [
                -3.723408154134924,
                -2.1231844871079772,
                3.3441596258314545,
                1.6978186557972366,
                -1.2597192263591122
            ],
            [
                1.554765228038518,
                -0.004025590386530792,
                -1.8958316401513595,
                -0.7284769216027983,
                0.44230793938019536
            ],
            [
                2.362176968950015,
                1.8249475333657568,
                -1.409779301558918,
                -1.0620479212107339,
                1.1004578360949702
            ]
        ],
        [
            [
                0.7326768297909686,
                1.4740938870584013,
                -2.489442596709241
            ],
            [
                1.3262925627399522,
                -1.846544250572701,
                -1.1818138520720574
            ],
            [
                -1.5436284030144405,
                -2.396152594722315,
                2.50291659923824
            ],
            [
                -2.087587202691913,
                1.3101310825476278,
                0.2539878380448923
            ],
            [
                1.9037810742746197,
                -1.4874022599530456,
                -0.7185757040146045
            ]
        ],
        []
    ]
}