{
    "bias": [
        [],
        [
            0.005872638607936552,
            0.22488915476793353,
            0.08679300618194073,
            0.005511384545670665,
            0.5731605490277913,
            0.4732819787307601,
            -0.06519545153112538,
            0.2169002633907325,
            0.1841512659661797,
            0.03630858251489064
        ],
        [
            -0.3063035048319184,
            0.0005930515831202348,
            0.057093355080548795
        ],
        []
    ],
    "model_dict": {
        "cost": "mse",
        "hidden": [
            [
                10,
                "relu"
            ]
        ],
        "input": 21,
        "output": [
            3,
            "linear"
        ]
    },
    "weights": [
        [],
        [
            [
                0.07364613268794123,
                -0.0795417542989591,
                0.28519369883779716,
                -0.06446007260707812,
                0.22565835090184866,
                -0.2634876288166084,
                -0.10249889248653452,
                -0.2041327153234389,
                -0.20021755715534403,
                0.2967467965401928
            ],
            [
                0.0887735394161464,
                0.6701816770289281,
                -0.11857644136564796,
                -0.04950732080967616,
                -0.11463350306597402,
                0.49250356291254405,
                0.6263049690867497,
                -0.2724242569546953,
                -0.2663391414671404,
                -0.055642901914738606
            ],
            [
                -0.14669092981603865,
                -0.2695042399334844,
                -0.1292315127554371,
                -0.17163273205951504,
                -0.35093129579860327,
                1.1594678287149685,
                -0.049698547606115626,
                -0.14882444724790675,
                -0.2192546323325631,
                -0.12093597595644137
            ],
            [
                -0.05873361851400033,
                -0.24098660518832274,
                -0.16626988771226997,
                -0.19925846956624532,
                -0.30328693374298615,
                -0.4817932256513276,
                -0.0014599583090116378,
                0.41370444537223944,
                0.49249703966824915,
                -0.049116016637972264
            ],
            [
                0.5020942292084316,
                -0.25942003180327433,
                -0.25714269737598516,
                0.19317574029329163,
                0.7534934413579281,
                -0.22594254917419176,
                -0.002513216141008345,
                -0.48241101480280235,
                -0.26809972608346644,
                -0.1817551893543306
            ],
            [
                0.06304326578665834,
                0.5681900838958311,
                -0.11754316762816562,
                -0.056972612309123614,
                -0.6036951811906687,
                0.33259428272718067,
                -0.21248805461303272,
                -0.3462637419741276,
                0.27548650542735176,
                -0.061725542431372404
            ],
            [
                -0.2089256707994892,
                -0.2457396381903365,
                -0.15910734701740603,
                -0.14427944040983906,
                -0.33423869668579825,
                0.3881017177698486,
                -0.014665350586383498,
                0.40603434873214916,
                0.17968903962051933,
                0.6104530484533438
            ],
            [
                -0.11863762732917596,
                -0.25389985605525534,
                -0.15370142654694133,
                0.12208148392634396,
                -0.4688797435432614,
                -0.49714639159282004,
                -0.27336064070989,
                0.5322814716552744,
                0.2761817097583238,
                -0.11534798837776297
            ],
            [
                -0.2393029798463302,
                -0.15626617607218254,
                -0.14236972431051667,
                0.26822345199427494,
                0.8687910370782048,
                -0.08875339420860442,
                0.00824055790498308,
                -0.4260471326231389,
                -0.24622489382031398,
                -0.15036746465043596
            ],
            [
                -0.01981025486765258,
                -0.2660410037190381,
                -0.1454511822725632,
                -0.06021164233680182,
                -0.39032520365906764,
                0.7383277659725298,
                0.7890813880063454,
                -0.319744965599053,
                0.6822190614935042,
                -0.052673383013547785
            ],
            [
                -0.08415536798016338,
                -0.24623489296352716,
                -0.2701298184078369,
                -0.13672124749392692,
                -0.38763911524839106,
                0.4071326658759144,
                -0.22893550105024923,
                0.05538139402449923,
                0.18896667580368431,
                0.6052291005061962
            ],
            [
                -0.1178688723139384,
                -0.2513215092974182,
                -0.14642157403891742,
                0.25003806559020125,
                -0.43122672832648223,
                -0.4816593627990412,
                -0.1339832623662826,
                0.057007429040122334,
                0.5652418614933318,
                -0.04150073289437203
            ],
            [
                -0.19451423660490005,
                -0.06126006680671246,
                0.11706715618355024,
                -0.1367395529238053,
                0.8256639039803556,
                -0.21730636208082876,
                -0.07421465234709151,
                -0.47592380646937954,
                -0.21332719994022753,
                -0.03747090402130675
            ],
            [
                -0.2891568927746779,
                0.5718738657251395,
                -0.17023362876615983,
                -0.07322586097778996,
                -0.2174583033254229,
                0.4761198909514801,
                -0.13461755599818837,
                -0.2735913626949891,
                0.4048420122824786,
                -0.042536494564063054
            ],
            [
                -0.29252109915368846,
                -0.2922271087104936,
                -0.13342732852598319,
                -0.16658995833441095,
                -0.4787351442334731,
                0.2375318084991036,
                -0.04368366187008765,
                0.19587372178789528,
                0.22974991914405826,
                0.5584885677275812
            ],
            [
                -0.2441686740420999,
                -0.24824564435196828,
                -0.19068279580297495,
                -0.15435565280430683,
                -0.48900987771153165,
                -0.5038417768128696,
                -0.03246252129321192,
                0.25710188350593777,
                0.3590479683801901,
                -0.06076252827479605
            ],
            [
                0.3940749762918982,
                -0.2569205671946613,
                -0.23363128038612213,
                0.32508488334443375,
                0.5377847500549607,
                -0.10681110555040847,
                0.04086631152351536,
                -0.09656520447741818,
                -0.1631014509971026,
                -0.30853981169007205
            ],
            [
                0.12695273367959004,
                0.06843015621851392,
                -0.15304525374522615,
                -0.29122806836382914,
                -0.3935816174033833,
                -0.12979347210855935,
                -0.08107258360350292,
                0.17864277320347485,
                0.33220728060689564,
                -0.07751870563667176
            ],
            [
                -0.07352109889814631,
                0.12442702041652004,
                0.16056280844553378,
                0.25329920159585323,
                -0.17503198667177103,
                -0.05127453502877155,
                -0.26952227182979105,
                0.053540314447519166,
                0.20924491091820124,
                -0.08290214465119819
            ],
            [
                -0.08565526683855632,
                -0.1835714015641222,
                -0.14339575732124704,
                0.3877068471747035,
                0.14286582884440066,
                -0.5104620328834614,
                0.0010993948409576176,
                0.4289502139048646,
                0.5247680044933071,
                -0.05961141967483439
            ],
            [
                -0.2122591726668123,
                -0.14803174274698128,
                0.009307537064469074,
                -0.1956081337981177,
                0.16385582970947515,
                0.16073742561967064,
                0.13526885264361516,
                -0.17801139751755238,
                -0.0721718829971437,
                0.08348335698306175
            ]
        ],
        [
            [
                0.00409398472731505,
                -0.2594600632216766,
                -0.42180117767464065
            ],
            [
                0.8935173346111349,
                -0.7576074951086633,
                -0.12550761633099783
            ],
            [
                -0.050603071903555376,
                -0.06501944644931926,
                -0.2602699513484279
            ],
            [
                -0.020513817379914454,
                -0.6935814315840808,
                0.01821790257760472
            ],
            [
                -0.6108795107058582,
                -0.6761680154759718,
                -0.5095818887294333
            ],
            [
                0.4720327850808977,
                0.6943998186269674,
                -0.6713396192023234
            ],
            [
                0.5873170173755299,
                -0.31228173813466575,
                -0.04094154753786677
            ],
            [
                -0.12611089355981148,
                0.24499340383912172,
                0.6665859535211635
            ],
            [
                0.36287205678303924,
                0.03684416398889362,
                0.9760808600539732
            ],
            [
                -0.010551708890941936,
                0.5325021558399099,
                -0.006679997318315913
            ]
        ],
        []
    ]
}